4.145254e-27	1.34862285e-30	-3.5018118e-05	1.3592389e-06	1.2565186e-09	1.6471521e-38	-4.9963636e-18	-0.0002475159	-1.590892e-18	-2.550262e-09	4.1055417e-21	4.375555e-07	0.00090858684	-7.999378e-09	4.2698458e-19	2.4868883e-31	8.220274e-09	6.7701285e-06	0.00011612411	-9.3930345e-07	1.7875498e-37	1.8805082e-09	8.826418e-17	6.1038753e-31	-3.6658463e-07	-2.4828985e-33	-1.5178587e-05	6.311787e-38	-3.2192613e-22	0.0005279022	-1.8328445e-23	7.29439e-28	7.2373274e-10	-8.6638596e-14	-3.9411198e-06	4.7796883e-15	1.1183718e-36	-0.00083196186	-5.0560285e-34	-2.9111804e-14	4.4435986e-08	1.6325803e-22	-4.8330265e-21	-2.8003817e-14	-6.504578e-06	1.1735555e-26	1.4901942e-22	7.031414e-06	2.919288e-14	-0.00010286255	-5.5852524e-07	1.459326e-07	4.7590424e-14	2.3040424e-10	-2.2390074e-12	-4.460064e-39	2.8487808e-09	-6.203995e-16	-4.343265e-12	1.2351686e-32	1.7436894e-11	-1.0558472e-29	-1.9293213e-10	1.1978259e-31	2.511217e-18	-1.2366858e-14	3.00322e-39	-2.1489178e-08	1.2159811e-38	5.9305947e-09	-8.195245e-17	4.9959655e-16	4.2179554e-12	-3.0826097e-12	1.9381492e-23	5.085914e-38	-1.55749e-05	-1.8292318e-24	-4.889734e-15	-2.1310579e-07	-1.8576255e-29	-4.3962728e-14	1.7192098e-05	-7.903116e-34	4.5744844e-15	9.260697e-08	8.589324e-05	0.00022753468	7.946215e-06	1.3221529e-31	-0.00023343477	-2.3044143e-14	-1.4678837e-07	3.656672e-12	-5.0062386e-06	1.305575e-11	3.292526e-07	-9.367858e-11	1.7662933e-05	-9.579088e-36	1.7297058e-11	1.6901512e-28	5.8038142e-05	1.7928431e-11	-9.896763e-29	-1.9180313e-13	-1.6192296e-09	6.7820917e-13	1.687044e-20	0.0019342137	1.337967e-38	0.00010532493	-3.2856412e-24	-5.339522e-28	-5.0464965e-31	5.3121075e-12	3.944792e-15	1.7461054e-15	-3.62681e-13	2.497624e-07	-6.808209e-13	-1.8087668e-06	-5.6696394e-14	4.8509743e-14	-5.9456563e-15	-2.3358608e-20	2.5855484e-23	0.0002008433	3.1228093e-15	-0.00014129179	5.7786107e-21	1.0662121e-35	-2.0308968e-10	6.502086e-26	1.4637928e-34	1.574222e-07	-1.02481034e-22	-2.6680195e-31	-9.144512e-39	0.0016599705	-5.1487514e-10	-2.4378772e-09	1.8247437e-17	-1.2229567e-37	-3.097531e-21	1.1846267e-08	-1.0238894e-21	2.0361458e-13	0.00017767464	3.3282597e-21	1.1853319e-06	-4.1471045e-13	0.00010227861	8.1712515e-06	-5.34822e-13	1.8685804e-12	-6.279424e-05	7.5452416e-29	-2.4271694e-08	4.170803e-06	-7.4617125e-13	4.1630388e-10	2.3532476e-26	-1.5353936e-10	-3.786824e-06	3.1217056e-26	1.6968054e-23	1.8355431e-08	-3.5967828e-17	3.092826e-20	2.3455574e-10	-4.996166e-37	-8.607277e-16	-1.6229047e-12	4.995666e-23	-2.438505e-33	8.7523495e-06	8.861282e-07	2.7092298e-10	-4.238505e-10	3.694446e-22	-6.006541e-13	-1.016841e-23	2.7885e-26	-2.0971491e-13	-5.763021e-12	-7.1174986e-06	1.4095079e-11	-4.670885e-05	-3.513431e-05	-1.3779095e-15	1.651392e-39	2.9799929e-19	1.9769037e-11	9.097248e-18	1.16205014e-11	9.477566e-19	5.2426305e-16	1.918973e-06	2.8057899e-37
-4.4083648e-18	-1.152939e-18	9.178495e-12	-3.7438647e-05	2.0197259e-18	9.131836e-27	-9.116394e-28	5.1284858e-26	-6.7354773e-07	1.2660204e-16	3.5242273e-10	4.4224603e-06	-1.4005536e-18	2.2364886e-06	1.508589e-17	8.666665e-13	-6.656393e-11	3.0862134e-22	1.19669035e-14	7.788018e-09	-4.4998494e-10	0.0010415502	2.0544246e-21	-5.065038e-08	8.5373176e-07	1.2589261e-36	-5.280068e-25	9.6498365e-12	7.234518e-18	-1.3604276e-07	0.0011573242	-6.336367e-06	1.1541804e-10	4.1772314e-09	1.9133538e-06	1.4386314e-06	-0.00011597453	1.5285798e-07	6.1652145e-07	-2.8998887e-10	-1.9818349e-06	-4.096981e-27	2.1054682e-27	1.9590856e-25	4.887006e-06	-1.5674857e-16	-1.6273408e-06	7.675294e-19	9.335581e-24	-4.8520737e-06	-4.850438e-24	5.540792e-11	-5.0842864e-38	0.00016202815	6.1721096e-07	1.287573e-09	-0.00070960884	0.00018125043	-7.1103563e-09	3.3084463e-14	7.063959e-24	-9.701772e-19	-4.0628716e-12	0.0008112573	-6.7576856e-08	0.00010308539	9.922603e-06	-3.901093e-19	2.7359679e-06	-5.984474e-20	4.8570734e-22	-2.546436e-06	-1.0154501e-09	-9.9553446e-08	2.231986e-14	-2.6540535e-08	-4.4390718e-18	4.1664263e-09	8.285487e-06	0.000109126595	1.4552134e-29	-1.3234261e-05	6.3140554e-10	3.3414336e-09	1.7288429e-17	9.818881e-10	2.2031834e-16	3.9634797e-05	4.1053483e-17	-1.7954014e-34	-1.178462e-09	-1.880878e-17	7.3325746e-06	1.97963e-32	7.0684714e-17	-8.197528e-14	-1.9213961e-05	-9.74339e-18	4.1312637e-20	0.00194975	0.0008343728	6.5155673e-06	2.5163594e-05	9.040249e-35	-1.3805746e-16	-5.2915545e-29	-1.1583572e-06	-1.0415513e-06	0.00014844675	-2.4999653e-12	0.0003342986	7.705754e-15	7.0781137e-09	6.0223666e-12	-3.5594297e-10	-2.948902e-16	-1.9698523e-16	-4.3632055e-12	-1.814908e-18	-0.00020367223	-1.0300726e-11	-0.00019733919	-2.4975125e-24	-0.00021285859	3.236677e-05	-1.2900108e-17	0.0005047699	-5.388621e-38	-8.769755e-06	-9.718743e-20	-1.211033e-07	-4.31943e-14	1.1285654e-34	4.2522993e-19	-4.7309026e-22	1.5957449e-15	-2.6215333e-21	4.657876e-16	-3.4227264e-22	-2.9350124e-15	-3.2432507e-10	1.8381678e-25	4.613874e-06	-1.0680501e-15	-6.838442e-17	-2.1732913e-06	-1.03095256e-29	-1.0464373e-07	3.652925e-12	-1.0641146e-06	-1.785475e-15	-4.6425695e-05	5.5969573e-19	-2.7836462e-09	6.170238e-20	1.3526374e-17	-2.444432e-15	-3.115196e-28	-2.7663278e-08	1.5310171e-27	2.0639e-08	7.3302817e-06	6.506252e-09	-3.1304435e-06	-8.453347e-06	-4.1997825e-10	-5.685737e-07	-3.122299e-15	-3.131718e-10	3.558741e-29	-4.387955e-21	-6.769783e-10	-3.2180392e-09	-1.3362585e-06	-1.2426789e-19	-3.7144568e-25	5.062932e-13	-2.571964e-09	-0.00022317533	-1.0465647e-30	-7.904687e-18	4.3449567e-12	-6.3252537e-12	-0.00076434226	6.8647687e-25	8.679714e-18	-2.5176004e-08	-2.5712303e-05	-2.2944674e-15	-2.0934216e-07	1.0118652e-08	-7.138521e-11	-9.530715e-10	0.0007708456	3.1981282e-22	2.5802314e-25	-3.695472e-20	-3.675551e-07	-2.3340652e-05	1.1294467e-12
0.13262905	-0.033364035	-0.014101389	-0.07572846	0.004695146	0.04496364	0.03894981	-0.0678614	0.028095048	-0.084853485	0.099758424	-0.05198232	-0.013566971	0.061312634	-0.017430903	-0.031827968	-0.02486494	-0.002766674	-0.053320855	0.006939647	-0.06336266	-0.0019389944	-0.07890741	0.03059004	0.008164013	-0.030008236	-0.014213211	-0.05176202	-0.0032715998	0.080493934	-0.034569055	0.088554755	0.06426088	-0.041136716	-0.03442583	0.021801656	0.019355947	-0.003602848	0.0079949275	-0.11331879	0.018271105	-0.05861013	-0.119397424	0.027955586	0.00070404145	0.0569108	-0.07115412	0.054630656	-0.08519417	-0.06883596	0.0636255	-0.07680869	-0.021664122	-0.009816361	-0.049496632	0.00082831975	0.020710317	0.03885173	0.16856378	0.035985626	-0.116270065	-0.0167111	-0.018962212	0.07348676	0.08743885	0.0027824554	0.039083224	-0.007024595	-0.016655577	-0.006072292	0.07451629	-0.14574014	-0.006091272	-0.0010386767	0.09178872	0.06655222	-0.048327617	-0.08736329	-0.04127112	0.063654095	-0.006974817	-0.00583474	-0.058413602	0.027942363	0.044330377	-0.02253497	0.015731493	0.0055785556	-0.009342386	-0.1026677	-0.0040768646	0.055925116	0.08612442	-0.050041944	0.02678091	-0.022498395	-0.015095189	0.14014359	-0.016145097	-0.07256012	0.065184735	0.09804458	-0.04363891	0.010611183	-0.05638249	-0.0068913708	-0.023686625	0.027170682	0.108903736	0.029319014	0.009119203	0.056432232	0.03711439	-0.045965154	-0.071787424	0.0236984	-0.10076558	0.016043773	0.03815932	0.011617905	0.0040054475	0.08489104	0.07160887	-0.03529559	-0.025210569	-0.09960297	0.09737366	0.118445665	-0.02094368	0.024752224	-0.053798206	-0.040214296	0.049673863	-0.0073757037	0.05483744	0.012537514	-0.038592424	0.014443451	0.04583254	-0.010017565	0.01976015	0.05994494	0.10429786	-0.036944363	0.06666284	0.05205933	0.08699673	-0.029091978	-0.027201558	-0.006061714	0.03228172	-0.08039877	-0.06435013	0.10170443	-0.008489476	-0.059407778	0.046912007	0.016237535	-0.004453786	0.03782526	0.016252661	0.10904725	-0.031807017	0.12050766	0.02139929	-0.03711048	-0.039071597	-0.108877875	-0.0835642	0.05473011	-0.008636962	-0.027550083	-0.028947916	0.08295438	-0.012814282	0.11672651	-0.02853118	0.002280606	0.040278696	0.020979406	-0.012063622	0.052676607	-0.086995244	-0.051118456	0.0571678	-0.05461934	0.013034852	-0.03237149	0.007484291	0.08899691	-0.041426435	0.05932263	0.08133352	0.023370022	-0.017195525	-0.0092501715	-0.017807161	-0.018963534	0.014375103	0.011150875
0.0350057	-0.11066416	0.11212912	-0.12418346	-0.031199407	0.039709747	-0.04527929	-0.022507016	-0.06151299	0.08612686	-0.0063995346	-0.06836776	-0.015708528	-0.11212876	-0.012315231	-0.06954017	-0.024295624	0.03420629	0.089456245	-0.011971512	-0.12770917	0.097791485	-0.007884766	-0.011775033	-0.091427684	-0.11233824	-0.009799992	0.011512628	-0.030232297	0.098755606	-0.013681209	0.045836195	0.015345272	-0.015532672	0.03311697	-0.030736128	0.044070452	0.07847743	0.078002095	-0.07076376	-0.034720864	-0.006306762	-0.06694103	0.05243459	0.038065255	0.08328195	-0.046348598	-0.040099993	0.107919626	-0.118343875	-0.021498438	-0.05722374	0.032594085	-0.026011767	-0.027179707	-0.013597121	0.11775663	-0.06177226	0.014811225	0.033486307	-0.07165899	0.058248065	-0.05095618	-0.0046290904	0.08019914	0.075753	0.034714732	0.006064618	-0.08032193	-0.09944323	0.055533133	0.09151837	-0.00039004354	-0.09713587	0.08274158	0.0401263	0.046416376	-0.052859675	0.055067763	-0.054734252	-0.08482683	-0.032093003	-0.07599042	0.12238975	-0.027105195	0.0138887	0.13404134	-0.060599532	0.0511316	0.0975061	0.047438845	-0.1165472	0.057617318	0.057034068	0.053284135	-0.045652695	0.06789427	0.0062216576	0.037463356	0.016511766	0.025631884	-0.049050163	-0.08086384	-0.017289376	0.057366163	-0.061797827	0.0364429	0.02806419	0.065180704	0.012773349	-0.023838405	-0.1438693	0.058212508	0.07292993	-0.08157717	-0.03554403	-0.002097097	-0.11174851	-0.024948698	-0.05922261	0.06824293	-0.029280169	-0.11071238	-0.14441994	-0.08871718	-0.03959618	-0.06704018	0.014700039	0.06712406	-0.082757175	0.10587999	-0.042995702	0.021320362	-0.05232025	0.03215325	-0.017514199	0.0013939547	0.07863409	-0.02411578	0.061881244	0.037776627	0.09622908	-0.10543873	0.0036238094	-0.09723257	0.013247142	0.018910762	0.058912218	-0.07571408	0.050112046	0.10886631	0.004135487	-0.111480564	0.05925971	0.0050018714	0.048667498	0.07579321	-0.017459068	-0.047023397	0.11305668	0.20208788	0.053536598	-0.027661882	-0.04795527	-0.044329796	0.0006863581	-0.022962185	-0.0605329	0.07208584	0.053896707	0.008626745	0.07858035	-0.008434317	-0.033698153	0.07331307	0.031143839	-0.19659473	-0.03257085	-0.08566252	0.059285473	-0.019071596	0.058188178	0.14903614	0.039581176	-0.004529178	-0.044151228	-0.080058366	-0.079895295	-0.056925334	0.052749623	0.08806348	-0.03464486	0.03031333	-0.13067628	0.06434209	-0.065000504	-0.043083034	0.034314528	-0.040812165	-0.039855883
-0.16844377	0.21979557	-0.07161351	0.06238048	0.112237245	-0.12282988	0.0064871563	-0.057220373	-0.02447988	-0.09364069	-0.012408348	0.14147119	-0.026526203	0.0023540866	0.0643488	-0.037458614	-0.0026412893	-0.05309818	-0.10065577	0.12589194	0.10601605	-0.05279145	0.03926218	0.035733324	0.060512006	0.26040784	-0.15822496	-0.00079732394	0.18393488	0.09024861	-0.012604282	0.03293211	0.024915881	0.2768685	-0.19423002	-0.104104556	-0.016236851	-0.23945303	0.018100277	-0.046107512	-0.05478841	0.014397621	0.14048052	-0.21864432	0.06181704	0.04637826	-0.0699803	-0.49250692	-0.151491	0.042082433	0.07816785	0.12875877	-0.11155992	-0.23069496	0.030485138	-0.08637492	-0.25950816	0.20369083	0.112874016	-0.035324067	0.057622023	-0.09232199	0.05675565	-0.15962984	-0.12765352	0.19578604	0.17202133	0.2915111	0.008482267	0.28016168	0.053858843	0.00899971	-0.15551236	-0.050732765	0.12795524	-0.1868509	-0.20511764	0.114440076	-0.0435214	-0.22240902	-0.025211876	0.11705976	0.19880699	0.10713305	0.0018836757	0.15867442	-0.06439409	-0.0043912726	0.01982514	0.012190906	-0.000462211	0.038339414	0.007716522	-0.13563108	0.054351248	0.10309137	-0.016426891	0.0706775	0.12805109	-0.06967501	-0.012998399	0.25908187	0.031158684	0.07408163	-0.023124332	0.11386206	0.3157378	0.11439738	0.10410408	0.025962131	0.20618576	0.066307135	0.011206687	-0.097289465	0.082323655	0.09244092	-0.30153933	-0.26868504	-0.12656848	-0.09565017	-0.11588459	0.05992389	0.024244143	-0.049389187	0.07653566	-0.14990875	-0.11015168	0.2276888	-0.0157439	-0.051764812	-0.07416077	0.048234884	-0.016914496	-0.045891926	0.055315603	-0.16593307	-0.058341548	-0.10782155	0.10881622	0.27448654	-0.11180344	-0.15359268	0.062340554	0.12947114	0.1789434	-0.0020108174	-0.06533779	0.13308322	0.2706058	0.06983204	-0.10669498	-0.020350572	0.46615434	-0.09128213	0.0035206408	-0.0031062001	0.22242546	0.33435947	-0.05933641	-0.14076257	-0.25686222	0.11186448	0.117818035	-0.0402543	0.13570231	0.052720338	-0.028998323	-0.009116124	-0.30424744	0.0077819964	0.10388132	0.12673153	0.27822563	0.12633069	-0.10309294	0.11247542	0.30888352	0.12095181	-0.4212626	-0.06824784	0.0013152477	-0.1160546	-0.20360886	0.011155653	0.08186001	0.066424385	-0.08127616	0.14945959	0.0752993	-0.039900485	-0.23202284	-0.017247966	0.13566458	0.1757745	-0.11204002	-0.10501068	-0.02990124	-0.055943172	-0.0042239367	0.1626854
1.772002e-39	-1.783308e-39	1.790415e-39	-1.279353e-39	-1.787657e-39	-1.28872e-39	1.275853e-39	1.261183e-39	1.783532e-39	-1.615477e-39	1.761974e-39	1.269997e-39	-1.616307e-39	-1.277377e-39	1.752624e-39	-1.271208e-39	-1.771733e-39	-1.276413e-39	1.284908e-39	1.2809e-39	-1.615051e-39	-1.776128e-39	1.778538e-39	-1.281775e-39	1.269907e-39	1.285469e-39	1.781251e-39	-1.787702e-39	-1.279174e-39	1.2865e-39	1.287621e-39	-1.264478e-39	1.2656e-39	-1.272669e-39	-1.617383e-39	-1.775343e-39	1.267553e-39	1.78004e-39	1.784967e-39	1.765668e-39	-1.781363e-39	1.772697e-39	1.618638e-39	1.778784e-39	1.764654e-39	-1.264322e-39	-1.263716e-39	1.288697e-39	1.271589e-39	1.764654e-39	-1.266205e-39	1.282089e-39	-1.786918e-39	-1.785617e-39	1.765091e-39	-1.751323e-39	1.618347e-39	1.281012e-39	1.79324e-39	-1.281707e-39	1.765803e-39	-1.269369e-39	-1.750068e-39	-1.276682e-39	1.284863e-39	1.76119e-39	1.26542e-39	-1.764598e-39	-1.790034e-39	1.764037e-39	-1.787187e-39	-1.26273e-39	1.268293e-39	-1.793599e-39	1.774737e-39	1.778852e-39	1.777237e-39	-1.766162e-39	1.262102e-39	-1.283232e-39	-1.782417e-39	1.28363e-39	-1.271701e-39	-1.777529e-39	-1.28724e-39	1.286208e-39	-1.764138e-39	1.276817e-39	1.2809e-39	1.763488e-39	-1.267015e-39	-1.775903e-39	-1.788353e-39	-1.771161e-39	-1.76212e-39	-1.762468e-39	1.619401e-39	-1.793308e-39	-1.781363e-39	1.75213e-39	-1.766901e-39	1.281125e-39	1.287419e-39	1.270983e-39	-1.268853e-39	1.788846e-39	1.784855e-39	1.791155e-39	-1.784743e-39	1.618459e-39	-1.762894e-39	-1.786066e-39	-1.768852e-39	-1.779076e-39	-1.279779e-39	1.287105e-39	1.767843e-39	1.276369e-39	-1.277445e-39	-1.277938e-39	-1.764486e-39	1.270221e-39	-1.268629e-39	-1.776105e-39	-1.618392e-39	-1.783801e-39	1.280497e-39	1.793285e-39	1.273835e-39	1.268091e-39	-1.277949e-39	-1.763903e-39	1.287733e-39	-1.61615e-39	-1.285356e-39	1.78546e-39	-1.761605e-39	-1.617607e-39	-1.271566e-39	-1.78004e-39	-1.268226e-39	1.766498e-39	-1.273342e-39	1.276682e-39	-1.270703e-39	1.752691e-39	1.27657e-39	1.28706e-39	1.788846e-39	1.76295e-39	-1.264994e-39	-1.270613e-39	-1.763555e-39	1.279398e-39	1.61532e-39	-1.775522e-39	1.775948e-39	1.770466e-39	-1.783285e-39	-1.765125e-39	-1.287599e-39	1.782837e-39	-1.288316e-39	1.273476e-39	1.769076e-39	-1.765893e-39	1.763611e-39	-1.268808e-39	1.760786e-39	-1.272983e-39	1.750785e-39	1.274687e-39	1.783554e-39	-1.275225e-39	1.272116e-39	-1.272736e-39	-1.79055e-39	1.279465e-39	-1.763017e-39	-1.774558e-39	-1.27249e-39	1.777036e-39	-1.265846e-39	1.276458e-39	1.787456e-39	1.785976e-39	1.765069e-39	1.617136e-39	1.773908e-39	1.769121e-39	-1.264478e-39	1.7825e-39	1.269672e-39	-1.786559e-39	1.786985e-39	1.287935e-39	-1.789272e-39	-1.272284e-39	1.619827e-39	-1.78889e-39
1.45163e-40	-1.55384e-40	-4.83535e-40	4.51667e-40	-1.33524e-40	1.53502e-40	4.90286e-40	4.51026e-40	-1.52093e-40	-4.75142e-40	-4.85495e-40	4.66666e-40	2.57348e-40	1.52805e-40	-1.48994e-40	4.81846e-40	-1.5897e-40	4.6549e-40	-4.82885e-40	-1.43133e-40	-4.51655e-40	-4.70059e-40	-1.47146e-40	4.8723e-40	-4.60902e-40	-4.80678e-40	-1.53958e-40	-2.57007e-40	-4.5222e-40	2.57263e-40	-4.87058e-40	-2.52602e-40	4.53893e-40	-4.67913e-40	-4.87949e-40	-4.85806e-40	4.73793e-40	4.82134e-40	-1.42138e-40	-2.55436e-40	-1.54796e-40	-1.5461e-40	-1.60735e-40	-4.57122e-40	-4.63833e-40	-4.9029e-40	4.70314e-40	4.79138e-40	-4.84376e-40	4.8697e-40	-1.58654e-40	4.62884e-40	1.47602e-40	1.5557e-40	4.75777e-40	-1.4725e-40	4.7356e-40	-4.64416e-40	-4.77874e-40	-4.48494e-40	4.87746e-40	-4.57308e-40	-1.36171e-40	1.61627e-40	1.46821e-40	-4.78513e-40	-4.81206e-40	4.81036e-40	4.87265e-40	-2.5574e-40	1.55215e-40	-1.56982e-40	-4.52079e-40	2.54826e-40	-1.42592e-40	1.61731e-40	4.58603e-40	-4.61089e-40	-1.33315e-40	4.85537e-40	4.72364e-40	4.63372e-40	-4.66578e-40	-4.79817e-40	4.72784e-40	-1.61428e-40	-4.70312e-40	-1.47317e-40	-2.53017e-40	-4.68153e-40	-1.43225e-40	1.57748e-40	-4.78815e-40	-1.61416e-40	4.48801e-40	-1.35421e-40	-4.5703e-40	4.61205e-40	-1.47041e-40	-4.62029e-40	1.50281e-40	4.7958e-40	4.70216e-40	-2.55347e-40	-4.5141e-40	1.34131e-40	4.63313e-40	-4.57248e-40	4.82449e-40	1.53713e-40	-2.56014e-40	-4.61892e-40	1.35144e-40	4.77069e-40	4.7703e-40	1.54242e-40	-2.55294e-40	4.56832e-40	-1.55302e-40	-1.52461e-40	4.57374e-40	4.73525e-40	-4.77974e-40	1.58401e-40	4.67533e-40	1.52592e-40	1.51157e-40	4.86405e-40	4.75878e-40	4.52937e-40	4.78953e-40	-4.5882e-40	1.61036e-40	-4.62075e-40	4.6721e-40	4.73546e-40	1.34572e-40	4.58781e-40	-1.55442e-40	-1.60352e-40	-4.64344e-40	-1.58557e-40	4.74667e-40	4.61135e-40	4.50897e-40	4.92001e-40	-4.5779e-40	1.60068e-40	-1.54846e-40	-4.78947e-40	1.60569e-40	-4.68097e-40	-1.3106e-40	4.52161e-40	4.83214e-40	4.58945e-40	-2.55511e-40	-1.43176e-40	-1.50745e-40	-4.8426e-40	4.78455e-40	-1.46066e-40	-2.53451e-40	-1.57534e-40	-1.55848e-40	-1.5552e-40	1.59308e-40	4.48877e-40	4.69e-40	-2.57393e-40	-1.58358e-40	-1.58464e-40	-4.64742e-40	2.57686e-40	-1.59169e-40	1.52108e-40	1.51419e-40	-1.60931e-40	4.6923e-40	4.49715e-40	4.79402e-40	4.51651e-40	-4.59556e-40	4.50346e-40	-4.66546e-40	-4.93218e-40	-4.76045e-40	-1.4739e-40	-4.87956e-40	4.64207e-40	1.54482e-40	-2.56084e-40	1.52809e-40	-4.8173e-40	1.52216e-40	-1.52912e-40	-4.50473e-40	4.73248e-40	-1.34508e-40	4.67491e-40
0.033144314	-0.025230208	-0.021189297	-0.053148977	0.011533078	0.03812644	-0.01705269	0.029074159	0.0139955655	0.024655154	0.00873477	-0.008927684	0.01596067	-0.0003622561	-0.040360294	0.018608117	-0.0082351025	-0.038371373	0.035481256	-0.01766219	0.011626499	-0.043852154	-0.023557447	0.024464056	0.00068835187	0.013752728	0.0034356306	-0.005416241	-0.012669899	4.955806e-05	0.05235075	0.002439088	-0.01626345	0.00026451895	-0.015623083	-0.0037333653	-0.02922142	0.032811537	-0.034629103	0.0070478413	0.01123375	-0.019354293	-0.047930878	0.027838591	-0.014681793	0.009895314	-0.010011301	0.019274373	0.0076427124	0.032044888	0.018875338	0.04323947	0.0009044233	-0.02338244	-0.0043349997	0.011604643	0.023095341	-0.014480166	0.030665679	0.014533188	0.000925586	-0.010600279	-0.017155131	-0.023114573	-0.015959118	0.0031254126	-0.03437432	-0.03196709	-0.05014043	-0.022028722	0.031219259	-0.007749562	0.021172157	0.007641587	-0.03961066	0.025300104	0.04483997	0.00062073895	-0.04277048	0.0038122186	-0.048165407	0.0042128097	0.013123407	0.0197008	0.04189283	-0.01638851	-0.006621699	0.022443801	0.04515293	-0.009130157	0.026664682	-0.025098326	0.018760422	0.0026943916	-0.0222951	0.047223143	-0.005760326	-0.008353448	0.006141669	0.0032922695	-0.02823265	0.015555924	0.023539675	-0.01629631	0.048065767	0.0022375453	0.009938158	-0.008767637	-0.05228399	0.014341197	-0.06275658	0.017904947	0.025330741	-0.0040287827	-0.007252624	-0.010293983	0.0015665435	0.035215795	0.014720767	-0.017515238	0.025074212	0.05849854	0.025355741	-0.04891522	-0.009754284	0.028963074	0.013088605	0.011498788	0.03436601	-0.027126994	0.00067023485	-0.026574148	-0.0023079214	0.009540543	5.083189e-05	0.0028544331	0.037238654	-0.00378809	-0.005449604	-0.010263314	0.007588933	0.004252369	-0.010136742	-0.025518445	-0.02162427	-0.01721793	0.046881504	-0.020897854	0.012974705	-0.04764341	0.010239296	-0.025915861	0.041025136	-0.039375044	0.016240327	-0.029895982	-0.0056204633	-0.019357912	-0.014413653	-0.017436163	0.006662087	0.01509692	-0.007015324	0.010904888	0.0059309937	-0.014039597	0.022039656	0.040619563	-0.007976031	-0.01312666	0.02698592	-0.065729596	0.00493331	0.030040756	0.024466045	-0.0061268867	-0.03718898	0.0043263556	0.007300822	0.041684527	0.008168472	0.0018905113	-0.009469712	-0.023762414	0.01333545	0.028891694	0.034785166	-0.0026787969	-0.02200155	0.008976504	0.09049212	0.031188795	0.023120342	0.007884473	0.016805777	0.029252311	-0.011481827	0.003332996	-0.0079367785	0.0004966406
0.23180406	-0.15515487	0.33535704	-0.32201812	0.25004476	0.34031814	-0.13502517	0.10480621	0.25179377	0.15369092	-0.21840996	-0.29876018	0.3347108	-0.2926478	-0.082263514	-0.17867912	-0.20156395	-0.1605677	0.15716332	-0.17303447	-0.4163151	0.35654604	-0.019174866	-0.153035	-0.18714553	0.0035508624	-0.17438233	-0.21912235	-0.38490614	0.203668	-0.14634463	0.1731768	-0.17167397	-0.24827507	-0.102177925	-0.12053346	-0.031118568	-0.06627627	-0.06719304	-0.18736364	0.15291725	0.15581705	-0.008865969	-0.09244313	0.04487037	-0.05578967	-0.31214312	-0.251309	-0.22291523	0.19430031	-0.21432698	-0.19794543	0.4274453	-0.08567683	0.038948394	0.23704375	0.3044582	-0.13029702	0.40641558	0.08563469	-0.19395259	-0.12052085	0.071791284	-0.1479702	0.25566334	0.28183588	0.041534044	0.05280448	-0.23276012	0.19455962	0.16562341	0.2517017	0.071892016	-0.20858416	0.11436044	-0.0659195	-0.26613325	-0.123214	0.23029396	0.12856035	-0.23258868	0.052529436	-0.14728534	0.32084656	0.13430443	-0.29844356	0.5114909	0.13058732	0.1315231	0.2548135	0.25615975	-0.26318374	0.15539081	0.1797514	0.1708733	-0.13530886	0.16496663	0.35058072	0.08307885	-0.13682865	-0.15013409	-0.13593037	0.011197183	0.23330638	-0.16291074	-0.038976945	-0.018437391	0.18503192	0.1675639	-0.15542556	-0.18261872	-0.331989	0.23138821	0.31616315	-0.06725329	-0.14591472	-0.0682669	-0.2608962	0.34294897	-0.24459541	0.32798767	-0.1905916	-0.27552497	0.00083536195	-0.20163651	-0.09350651	-0.16991134	0.24986428	0.21880202	0.004089456	0.24068508	-0.1621368	-0.0431931	0.16355786	-0.25072965	-0.24985527	0.21153137	0.18768947	0.20829414	0.07521003	-0.12871109	0.4255203	-0.20087303	-0.01659199	-0.20056584	-0.29207996	-0.110295996	-0.21248192	-0.4411532	-0.08411232	0.37938112	-0.16650608	-0.17940837	0.02723567	0.39751774	0.13794123	-0.25077516	0.18688112	-0.3567422	0.23061319	0.5497086	0.26597416	0.008619894	0.28789103	-0.09943838	0.038509585	-0.11988561	-0.1449614	-0.07047984	-0.15836714	-0.20055114	0.3378102	-0.17544451	0.044743147	0.21827938	-0.1171653	-0.4160829	0.10136309	-0.10292156	-0.19041876	0.32373077	0.03802537	0.21738932	-0.112994164	-0.051791992	-0.16372888	-0.085531406	-0.19269653	-0.115894824	-0.20841852	0.17399523	0.32709512	-0.2709733	-0.23267853	0.1587676	-0.14667381	-0.19453827	-0.14417534	0.12908542	-0.14828876
0.04322566	-0.18607901	0.1833937	-0.37613216	0.30716893	0.36788753	-0.46120605	-0.100082524	0.02159342	-0.30818197	-0.13931823	-0.38275447	0.3763574	-0.1167153	0.08592303	-0.1653334	-0.38577655	0.33435377	-0.19649602	0.06639265	-0.6724729	0.11147698	0.119681224	0.09625746	0.016206043	0.06701608	-0.26205185	0.011154915	-0.6095035	0.10612812	-0.35317296	-0.081275456	-0.22764763	-0.5153494	-0.23008357	0.09974227	-0.3014459	-0.083601266	0.058333747	0.26836926	-0.10409078	0.27137426	-0.09312036	-0.3273344	-0.22732008	0.3044238	-0.30991396	0.34430498	-0.38783374	0.0012166854	-0.18630934	-0.25235948	0.24415205	-0.13107699	0.009699859	0.30052018	0.10963823	-0.23840353	0.110683486	-0.13870946	-0.04391936	0.39313024	0.10978544	-0.4478353	0.07767554	0.29393038	0.073811844	-0.116521075	0.07794228	0.10630458	0.114229	0.41422567	0.42375392	-0.10911755	0.13368209	-0.041641522	-0.016937405	-0.25578544	0.052971475	-0.08750221	0.030121015	-0.00092294073	-0.32782426	0.24359965	0.025681913	-0.46963134	-0.023817176	0.29821262	-0.16276994	-0.083208084	0.26461002	0.25242683	0.22619504	0.28430688	-0.031792507	-0.0008426612	0.14480495	0.18854141	0.03169846	-0.28366426	0.39837047	0.08753901	-0.21381097	0.3578555	-0.02844702	0.2390495	-0.20717399	0.10895869	0.073266074	-0.12136537	-0.041313756	-0.36217716	-0.19243403	-0.03867074	0.12006091	0.028524252	0.22400653	-0.086649925	0.3581854	0.040173866	0.37406635	-0.40824446	-0.3448049	-0.30612606	-0.031066172	0.037711993	0.32171917	0.39371634	-0.35587347	-0.20279163	0.36360693	-0.23455305	0.24861991	-0.12188539	-0.1646683	-0.3958605	0.0386813	0.34417874	-0.12714818	0.30112353	0.073238224	0.07859971	0.1573763	-0.057707902	0.034049094	-0.12022469	-0.17111102	0.066074915	-0.32262006	0.24909514	0.14281744	0.09035246	0.06955792	-0.41018614	0.25140923	-0.030722411	-0.4613521	-0.13744293	-0.1789196	0.28548265	0.30331984	0.07540764	0.11325585	0.47262698	0.2562129	-0.22746147	0.14326993	-0.21881577	0.031858787	0.21726704	-0.12860993	0.27423766	-0.13346346	-0.011049893	0.43585253	-0.3108399	-0.11195792	0.047591835	0.00811376	0.3573332	0.38912326	-0.10571964	-0.012831079	0.022658462	0.16038261	-0.15806413	-0.16476087	0.12818708	0.076225266	0.2475467	-0.1820362	0.36210936	0.010257819	-0.013427056	0.060847554	-0.35171676	0.21681559	-0.027084902	0.17869921	-0.21556848
-4.972667e-39	-4.346273e-39	4.182355e-39	4.155057e-39	4.344961e-39	4.176217e-39	4.163437e-39	-4.150125e-39	-5.827258e-39	-4.159612e-39	4.181682e-39	5.821972e-39	4.170357e-39	4.349611e-39	4.187977e-39	4.187489e-39	-5.822953e-39	4.15471e-39	4.174297e-39	-4.35069e-39	4.187083e-39	5.822014e-39	4.182299e-39	4.18687e-39	4.170374e-39	-5.818368e-39	4.972488e-39	-4.160581e-39	-4.149023e-39	-4.168473e-39	4.165996e-39	4.181074e-39	4.162235e-39	-4.165326e-39	4.167574e-39	-4.349322e-39	-4.190975e-39	4.155545e-39	4.149721e-39	-4.153053e-39	4.18138e-39	4.154881e-39	4.173414e-39	4.160626e-39	4.184078e-39	-4.977045e-39	-4.149068e-39	4.344911e-39	5.820321e-39	5.828799e-39	4.975408e-39	4.17066e-39	5.821473e-39	4.34972e-39	-4.18182e-39	-4.183843e-39	-4.150338e-39	4.174348e-39	4.175424e-39	-4.184619e-39	-4.349412e-39	4.974985e-39	5.824856e-39	4.345945e-39	4.15562e-39	-4.35421e-39	4.186567e-39	-4.172173e-39	-4.191287e-39	-4.166044e-39	-4.18565e-39	-4.974977e-39	-5.827863e-39	-4.159404e-39	-4.18872e-39	4.165578e-39	-4.169678e-39	-4.160091e-39	4.179193e-39	5.82855e-39	-4.344558e-39	-4.184333e-39	-4.160578e-39	-4.151078e-39	4.190073e-39	-4.148623e-39	-4.1869e-39	-4.172932e-39	-4.167787e-39	4.163073e-39	4.183753e-39	-4.353487e-39	4.187853e-39	4.3546e-39	4.349148e-39	4.189056e-39	-4.190577e-39	4.161038e-39	-4.16122e-39	5.822942e-39	-5.82353e-39	4.185423e-39	-5.828934e-39	4.152877e-39	4.151327e-39	4.348717e-39	-4.353204e-39	-4.161433e-39	4.347268e-39	-4.163897e-39	-4.345662e-39	-4.352203e-39	-4.15763e-39	5.824189e-39	-4.346312e-39	5.829351e-39	-4.185011e-39	-5.823227e-39	4.155388e-39	-4.179336e-39	4.191996e-39	5.818438e-39	4.180292e-39	4.148054e-39	4.184919e-39	-4.173361e-39	4.165979e-39	4.344123e-39	-4.168485e-39	4.348294e-39	-5.828084e-39	4.160057e-39	4.18109e-39	-5.828264e-39	4.974304e-39	-4.183627e-39	4.163888e-39	4.177237e-39	-4.191415e-39	4.176304e-39	-5.822266e-39	4.18021e-39	4.189075e-39	-5.822387e-39	4.150492e-39	-5.822143e-39	-5.819534e-39	-4.181873e-39	-4.150957e-39	4.174213e-39	-4.184936e-39	-4.164631e-39	-4.177585e-39	4.172251e-39	4.184723e-39	-5.819427e-39	-4.179092e-39	4.17034e-39	-4.972796e-39	4.354151e-39	-4.346248e-39	5.820495e-39	4.147981e-39	4.165954e-39	-4.344465e-39	4.972079e-39	4.187357e-39	4.170587e-39	5.820887e-39	4.177669e-39	-4.152566e-39	-4.346601e-39	-4.172111e-39	-5.827748e-39	4.180317e-39	5.821409e-39	5.819066e-39	-4.189773e-39	-4.18196e-39	5.8201e-39	-4.346618e-39	-5.825932e-39	-4.176682e-39	-4.169628e-39	-4.34604e-39	4.149225e-39	-4.188344e-39	-4.16846e-39	4.157257e-39	4.178109e-39	-4.165301e-39	4.192371e-39	-5.826305e-39	-5.829275e-39	-4.151235e-39	-4.189672e-39	-5.829119e-39	4.15666e-39	-4.161901e-39	4.174185e-39
